<?xml version="1.0"?>
<opencv_storage>
<stage6>
  <maxWeakCount>6</maxWeakCount>
  <stageThreshold>5.4807192087173462e-01</stageThreshold>
  <weakClassifiers>
    <_>
      <internalNodes>
        0 -1 1237 -262150 -12783618 1609210554 142654138 -65794
        171503610 2130444286 167960319</internalNodes>
      <leafValues>
        -4.8387095332145691e-01 9.1681736707687378e-01</leafValues></_>
    <_>
      <internalNodes>
        0 -1 597 -1065156581 1080262659 268435456 302792704 -2013036535
        1 16387 1610842503</internalNodes>
      <leafValues>
        -4.8270159959793091e-01 8.7945735454559326e-01</leafValues></_>
    <_>
      <internalNodes>
        0 -1 336 -464001817 1294124064 -16843018 176017406 1702716485
        1081374068 -252389897 -176693505</internalNodes>
      <leafValues>
        -5.6371885538101196e-01 8.6039930582046509e-01</leafValues></_>
    <_>
      <internalNodes>
        0 -1 8157 -805072869 537084033 16777217 -1056751613 -2147237877
        131074 204816 1074518049</internalNodes>
      <leafValues>
        -6.6530144214630127e-01 7.7446728944778442e-01</leafValues></_>
    <_>
      <internalNodes>
        0 -1 4383 -460851502 276922371 1074332161 1409648769 32803
        33562626 33597440 279106113</internalNodes>
      <leafValues>
        -7.2952300310134888e-01 7.3607164621353149e-01</leafValues></_>
    <_>
      <internalNodes>
        0 -1 462 -615315328 1073971200 536870977 -670546944 -2147352446
        33554432 -1073593741 -1862021055</internalNodes>
      <leafValues>
        -7.1377766132354736e-01 7.7226191759109497e-01</leafValues></_></weakClassifiers></stage6>
</opencv_storage>
