<?xml version="1.0"?>
<opencv_storage>
<stage7>
  <maxWeakCount>8</maxWeakCount>
  <stageThreshold>7.2539258003234863e-01</stageThreshold>
  <weakClassifiers>
    <_>
      <internalNodes>
        0 -1 1306 -37564270 -1364525314 -286078342 -2132612518 536870622
        -1861615613 -1979711464 1073905939</internalNodes>
      <leafValues>
        -6.7857140302658081e-01 8.9424204826354980e-01</leafValues></_>
    <_>
      <internalNodes>
        0 -1 2171 -1052716928 285212672 1114114 1358970944 -1862229632
        -1861746560 562249931 -1857961847</internalNodes>
      <leafValues>
        -5.9459424018859863e-01 8.1940281391143799e-01</leafValues></_>
    <_>
      <internalNodes>
        0 -1 712 -802779485 -151177220 -16842753 1010710390 -143309226
        2138537815 1735882326 -9179553</internalNodes>
      <leafValues>
        -5.3328245878219604e-01 9.3111997842788696e-01</leafValues></_>
    <_>
      <internalNodes>
        0 -1 4071 1376502227 1245347890 266505 1375863362 -2013233024
        838893824 139354 436765398</internalNodes>
      <leafValues>
        -7.0630705356597900e-01 7.3946571350097656e-01</leafValues></_>
    <_>
      <internalNodes>
        0 -1 530 -44053378 3710973 -32769 1243225914 2004305270
        2004254583 2104942455 -412614857</internalNodes>
      <leafValues>
        -5.6359666585922241e-01 8.6629563570022583e-01</leafValues></_>
    <_>
      <internalNodes>
        0 -1 8342 -754802560 -754974719 0 -1073709056 147458 0 532482
        -477642493</internalNodes>
      <leafValues>
        -6.9619917869567871e-01 7.4070703983306885e-01</leafValues></_>
    <_>
      <internalNodes>
        0 -1 4917 -530590642 337182720 -2145361912 403013648 1358987392
        655392 -2147465042 -402619773</internalNodes>
      <leafValues>
        -7.4148803949356079e-01 7.3680633306503296e-01</leafValues></_>
    <_>
      <internalNodes>
        0 -1 5435 -274227653 1804009127 1923145725 -1828651629 -18284684
        1728348014 -1919890050 1392745933</internalNodes>
      <leafValues>
        -6.1417746543884277e-01 8.7161529064178467e-01</leafValues></_></weakClassifiers></stage7>
</opencv_storage>
