<?xml version="1.0"?>
<opencv_storage>
<stage4>
  <maxWeakCount>6</maxWeakCount>
  <stageThreshold>4.0313637256622314e-01</stageThreshold>
  <weakClassifiers>
    <_>
      <internalNodes>
        0 -1 7899 -8659456 -65684 -135004496 2147475324 -1355571200
        926678911 389228304 135266227</internalNodes>
      <leafValues>
        -6.6929131746292114e-01 9.0752816200256348e-01</leafValues></_>
    <_>
      <internalNodes>
        0 -1 4039 -3955885 -764187607 -473899012 1668768238 -1347440854
        38215494 -1405898814 1075531435</internalNodes>
      <leafValues>
        -5.4233390092849731e-01 8.8802802562713623e-01</leafValues></_>
    <_>
      <internalNodes>
        0 -1 230 1617105612 16846849 -2147463100 192 655387 268632064
        134873299 -795115365</internalNodes>
      <leafValues>
        -8.4236347675323486e-01 7.4537318944931030e-01</leafValues></_>
    <_>
      <internalNodes>
        0 -1 8436 -692851157 16416637 -4 -991297537 74581365 8175615
        527916308 1080018431</internalNodes>
      <leafValues>
        -6.9490098953247070e-01 8.3916842937469482e-01</leafValues></_>
    <_>
      <internalNodes>
        0 -1 5404 -805316357 1781456814 278989560 -1035801410
        -1892422082 35913711 11177391 194745567</internalNodes>
      <leafValues>
        -6.7911875247955322e-01 8.4436392784118652e-01</leafValues></_>
    <_>
      <internalNodes>
        0 -1 7625 -153173000 -940644369 -16878613 2147479415 -957583666
        5046117 343250817 1357872383</internalNodes>
      <leafValues>
        -6.7123651504516602e-01 8.1304615736007690e-01</leafValues></_></weakClassifiers></stage4>
</opencv_storage>
