<?xml version="1.0"?>
<opencv_storage>
<stage9>
  <maxWeakCount>8</maxWeakCount>
  <stageThreshold>4.2711952328681946e-01</stageThreshold>
  <weakClassifiers>
    <_>
      <internalNodes>
        0 -1 1271 -328712 -67993622 -1900578 -576129046 -65537 -65810
        2127101950 -83698230</internalNodes>
      <leafValues>
        -5.4838711023330688e-01 9.2284506559371948e-01</leafValues></_>
    <_>
      <internalNodes>
        0 -1 2667 -4214785 931053327 661201614 863846270 -1487028836
        266108750 561860584 612318719</internalNodes>
      <leafValues>
        -4.1645455360412598e-01 8.7544035911560059e-01</leafValues></_>
    <_>
      <internalNodes>
        0 -1 131 -466619946 753889022 -16777218 -18878465 20247794
        577206263 2147483135 -201326721</internalNodes>
      <leafValues>
        -5.4862022399902344e-01 8.2994413375854492e-01</leafValues></_>
    <_>
      <internalNodes>
        0 -1 3609 286490675 403181600 -2130705980 -1459027968 8536244
        33570816 141932 -1199472630</internalNodes>
      <leafValues>
        -6.1050009727478027e-01 7.6685380935668945e-01</leafValues></_>
    <_>
      <internalNodes>
        0 -1 7074 1430360083 1261569 20971539 151064705 33587354
        135266312 50397382 529090696</internalNodes>
      <leafValues>
        -7.4843502044677734e-01 6.4066565036773682e-01</leafValues></_>
    <_>
      <internalNodes>
        0 -1 4671 -1988022272 1364230144 16908561 -745537520 276856962
        -536870776 4295872 -1437878253</internalNodes>
      <leafValues>
        -7.0499229431152344e-01 6.7022246122360229e-01</leafValues></_>
    <_>
      <internalNodes>
        0 -1 3291 1912611016 -805202672 67637 1364262913 -939491152
        838995968 -2004803558 2097918083</internalNodes>
      <leafValues>
        -7.5230664014816284e-01 6.7490822076797485e-01</leafValues></_>
    <_>
      <internalNodes>
        0 -1 423 512872651 655362 1207992328 -804122365 -2130673454 0
        -1056668797 -211312625</internalNodes>
      <leafValues>
        -7.2874885797500610e-01 7.0137560367584229e-01</leafValues></_></weakClassifiers></stage9>
</opencv_storage>
